<?xml version="1.0"?>
<opencv_storage>
<cascade>
  <stageType>BOOST</stageType>
  <featureType>HAAR</featureType>
  <height>48</height>
  <width>48</width>
  <stageParams>
    <boostType>GAB</boostType>
    <minHitRate>9.9500000476837158e-01</minHitRate>
    <maxFalseAlarm>5.0000000000000000e-01</maxFalseAlarm>
    <weightTrimRate>9.4999999999999996e-01</weightTrimRate>
    <maxDepth>1</maxDepth>
    <maxWeakCount>100</maxWeakCount></stageParams>
  <featureParams>
    <maxCatCount>0</maxCatCount>
    <featSize>1</featSize>
    <mode>BASIC</mode></featureParams>
  <stageNum>13</stageNum>
  <stages>
    <!-- stage 0 -->
    <_>
      <maxWeakCount>2</maxWeakCount>
      <stageThreshold>-3.0059063434600830e-01</stageThreshold>
      <weakClassifiers>
        <_>
          <internalNodes>
            0 -1 23 2.2361709852702916e-04</internalNodes>
          <leafValues>
            -9.7985154390335083e-01 7.6417642831802368e-01</leafValues></_>
        <_>
          <internalNodes>
            0 -1 2 -1.9243697170168161e-04</internalNodes>
          <leafValues>
            6.7926090955734253e-01 -9.8110657930374146e-01</leafValues></_></weakClassifiers></_>
    <!-- stage 1 -->
    <_>
      <maxWeakCount>2</maxWeakCount>
      <stageThreshold>-5.3494906425476074e-01</stageThreshold>
      <weakClassifiers>
        <_>
          <internalNodes>
            0 -1 5 -1.9861026667058468e-03</internalNodes>
          <leafValues>
            7.2022682428359985e-01 -9.0731203556060791e-01</leafValues></_>
        <_>
          <internalNodes>
            0 -1 22 -8.2325939729344100e-05</internalNodes>
          <leafValues>
            3.7236297130584717e-01 -9.7946768999099731e-01</leafValues></_></weakClassifiers></_>
    <!-- stage 2 -->
    <_>
      <maxWeakCount>2</maxWeakCount>
      <stageThreshold>-5.4594165086746216e-01</stageThreshold>
      <weakClassifiers>
        <_>
          <internalNodes>
            0 -1 7 -1.0533258318901062e-03</internalNodes>
          <leafValues>
            4.7452229261398315e-01 -9.1513758897781372e-01</leafValues></_>
        <_>
          <internalNodes>
            0 -1 19 3.4701956792559940e-06</internalNodes>
          <leafValues>
            -9.3305504322052002e-01 3.6919593811035156e-01</leafValues></_></weakClassifiers></_>
    <!-- stage 3 -->
    <_>
      <maxWeakCount>1</maxWeakCount>
      <stageThreshold>2.3726707696914673e-01</stageThreshold>
      <weakClassifiers>
        <_>
          <internalNodes>
            0 -1 0 -9.3655078671872616e-04</internalNodes>
          <leafValues>
            2.3726707696914673e-01 -9.9424457550048828e-01</leafValues></_></weakClassifiers></_>
    <!-- stage 4 -->
    <_>
      <maxWeakCount>2</maxWeakCount>
      <stageThreshold>-6.6124182939529419e-01</stageThreshold>
      <weakClassifiers>
        <_>
          <internalNodes>
            0 -1 21 9.4339902716455981e-06</internalNodes>
          <leafValues>
            -9.8975670337677002e-01 3.7969401478767395e-01</leafValues></_>
        <_>
          <internalNodes>
            0 -1 4 -2.3215496912598610e-04</internalNodes>
          <leafValues>
            3.2851487398147583e-01 -1.</leafValues></_></weakClassifiers></_>
    <!-- stage 5 -->
    <_>
      <maxWeakCount>2</maxWeakCount>
      <stageThreshold>-6.3922590017318726e-01</stageThreshold>
      <weakClassifiers>
        <_>
          <internalNodes>
            0 -1 18 3.4827191939257318e-06</internalNodes>
          <leafValues>
            -9.8937582969665527e-01 3.2797858119010925e-01</leafValues></_>
        <_>
          <internalNodes>
            0 -1 13 3.4616602988535305e-06</internalNodes>
          <leafValues>
            -9.6720445156097412e-01 3.7679469585418701e-01</leafValues></_></weakClassifiers></_>
    <!-- stage 6 -->
    <_>
      <maxWeakCount>3</maxWeakCount>
      <stageThreshold>-3.9914599061012268e-01</stageThreshold>
      <weakClassifiers>
        <_>
          <internalNodes>
            0 -1 15 3.4616602988535305e-06</internalNodes>
          <leafValues>
            -9.8579543828964233e-01 2.4371859431266785e-01</leafValues></_>
        <_>
          <internalNodes>
            0 -1 3 -1.3725389726459980e-04</internalNodes>
          <leafValues>
            3.4876197576522827e-01 -9.4341129064559937e-01</leafValues></_>
        <_>
          <internalNodes>
            0 -1 11 -2.2612288012169302e-04</internalNodes>
          <leafValues>
            3.0054670572280884e-01 -9.9603420495986938e-01</leafValues></_></weakClassifiers></_>
    <!-- stage 7 -->
    <_>
      <maxWeakCount>2</maxWeakCount>
      <stageThreshold>-6.6472494602203369e-01</stageThreshold>
      <weakClassifiers>
        <_>
          <internalNodes>
            0 -1 14 -2.8973456937819719e-04</internalNodes>
          <leafValues>
            -9.7581619024276733e-01 4.5616641640663147e-01</leafValues></_>
        <_>
          <internalNodes>
            0 -1 12 -3.5930942976847291e-04</internalNodes>
          <leafValues>
            -1. 3.1109127402305603e-01</leafValues></_></weakClassifiers></_>
    <!-- stage 8 -->
    <_>
      <maxWeakCount>3</maxWeakCount>
      <stageThreshold>-2.8998228907585144e-01</stageThreshold>
      <weakClassifiers>
        <_>
          <internalNodes>
            0 -1 20 2.2481365886051208e-04</internalNodes>
          <leafValues>
            2.7979275584220886e-01 -9.8351645469665527e-01</leafValues></_>
        <_>
          <internalNodes>
            0 -1 17 3.7986619645380415e-06</internalNodes>
          <leafValues>
            -9.1021960973739624e-01 3.4592062234878540e-01</leafValues></_>
        <_>
          <internalNodes>
            0 -1 10 6.4889750319707673e-06</internalNodes>
          <leafValues>
            -9.1569566726684570e-01 4.0548926591873169e-01</leafValues></_></weakClassifiers></_>
    <!-- stage 9 -->
    <_>
      <maxWeakCount>1</maxWeakCount>
      <stageThreshold>1.6764360666275024e-01</stageThreshold>
      <weakClassifiers>
        <_>
          <internalNodes>
            0 -1 9 -1.8353649647906423e-04</internalNodes>
          <leafValues>
            -9.9381762742996216e-01 1.6764360666275024e-01</leafValues></_></weakClassifiers></_>
    <!-- stage 10 -->
    <_>
      <maxWeakCount>2</maxWeakCount>
      <stageThreshold>-5.8482354879379272e-01</stageThreshold>
      <weakClassifiers>
        <_>
          <internalNodes>
            0 -1 8 9.9206576123833656e-04</internalNodes>
          <leafValues>
            5.1359999179840088e-01 -9.3828570842742920e-01</leafValues></_>
        <_>
          <internalNodes>
            0 -1 16 2.3803691146895289e-04</internalNodes>
          <leafValues>
            3.5346215963363647e-01 -9.8582553863525391e-01</leafValues></_></weakClassifiers></_>
    <!-- stage 11 -->
    <_>
      <maxWeakCount>1</maxWeakCount>
      <stageThreshold>2.0096269249916077e-01</stageThreshold>
      <weakClassifiers>
        <_>
          <internalNodes>
            0 -1 1 -6.7303328251000494e-05</internalNodes>
          <leafValues>
            2.0096269249916077e-01 -9.9701046943664551e-01</leafValues></_></weakClassifiers></_>
    <!-- stage 12 -->
    <_>
      <maxWeakCount>1</maxWeakCount>
      <stageThreshold>6.3666123151779175e-01</stageThreshold>
      <weakClassifiers>
        <_>
          <internalNodes>
            0 -1 6 8.1820675404742360e-05</internalNodes>
          <leafValues>
            -1. 6.3666123151779175e-01</leafValues></_></weakClassifiers></_></stages>
  <features>
    <_>
      <rects>
        <_>
          13 21 6 6 -1.</_>
        <_>
          15 21 2 6 3.</_></rects>
      <tilted>0</tilted></_>
    <_>
      <rects>
        <_>
          13 22 22 5 -1.</_>
        <_>
          24 22 11 5 2.</_></rects>
      <tilted>0</tilted></_>
    <_>
      <rects>
        <_>
          13 23 2 2 -1.</_>
        <_>
          14 23 1 2 2.</_></rects>
      <tilted>0</tilted></_>
    <_>
      <rects>
        <_>
          13 23 3 2 -1.</_>
        <_>
          14 23 1 2 3.</_></rects>
      <tilted>0</tilted></_>
    <_>
      <rects>
        <_>
          14 21 6 6 -1.</_>
        <_>
          17 21 3 6 2.</_></rects>
      <tilted>0</tilted></_>
    <_>
      <rects>
        <_>
          15 1 18 2 -1.</_>
        <_>
          15 2 18 1 2.</_></rects>
      <tilted>0</tilted></_>
    <_>
      <rects>
        <_>
          15 21 10 7 -1.</_>
        <_>
          20 21 5 7 2.</_></rects>
      <tilted>0</tilted></_>
    <_>
      <rects>
        <_>
          17 1 13 3 -1.</_>
        <_>
          17 2 13 1 3.</_></rects>
      <tilted>0</tilted></_>
    <_>
      <rects>
        <_>
          19 19 14 7 -1.</_>
        <_>
          26 19 7 7 2.</_></rects>
      <tilted>0</tilted></_>
    <_>
      <rects>
        <_>
          20 19 12 9 -1.</_>
        <_>
          26 19 6 9 2.</_></rects>
      <tilted>0</tilted></_>
    <_>
      <rects>
        <_>
          21 16 1 2 -1.</_>
        <_>
          21 17 1 1 2.</_></rects>
      <tilted>0</tilted></_>
    <_>
      <rects>
        <_>
          23 20 12 9 -1.</_>
        <_>
          27 20 4 9 3.</_></rects>
      <tilted>0</tilted></_>
    <_>
      <rects>
        <_>
          23 20 8 11 -1.</_>
        <_>
          27 20 4 11 2.</_></rects>
      <tilted>0</tilted></_>
    <_>
      <rects>
        <_>
          23 22 1 2 -1.</_>
        <_>
          23 23 1 1 2.</_></rects>
      <tilted>0</tilted></_>
    <_>
      <rects>
        <_>
          24 20 9 9 -1.</_>
        <_>
          27 20 3 9 3.</_></rects>
      <tilted>0</tilted></_>
    <_>
      <rects>
        <_>
          24 26 1 2 -1.</_>
        <_>
          24 27 1 1 2.</_></rects>
      <tilted>0</tilted></_>
    <_>
      <rects>
        <_>
          27 19 6 9 -1.</_>
        <_>
          30 19 3 9 2.</_></rects>
      <tilted>0</tilted></_>
    <_>
      <rects>
        <_>
          27 36 1 2 -1.</_>
        <_>
          27 37 1 1 2.</_></rects>
      <tilted>0</tilted></_>
    <_>
      <rects>
        <_>
          28 31 1 2 -1.</_>
        <_>
          28 32 1 1 2.</_></rects>
      <tilted>0</tilted></_>
    <_>
      <rects>
        <_>
          29 19 1 2 -1.</_>
        <_>
          29 20 1 1 2.</_></rects>
      <tilted>0</tilted></_>
    <_>
      <rects>
        <_>
          29 20 4 8 -1.</_>
        <_>
          31 20 2 8 2.</_></rects>
      <tilted>0</tilted></_>
    <_>
      <rects>
        <_>
          33 24 2 1 -1.</_>
        <_>
          34 24 1 1 2.</_></rects>
      <tilted>0</tilted></_>
    <_>
      <rects>
        <_>
          33 24 3 1 -1.</_>
        <_>
          34 24 1 1 3.</_></rects>
      <tilted>0</tilted></_>
    <_>
      <rects>
        <_>
          34 23 2 2 -1.</_>
        <_>
          35 23 1 2 2.</_></rects>
      <tilted>0</tilted></_></features></cascade>
</opencv_storage>
